digraph Tree {
node [shape=box] ;
0 [label="X[16] <= 0.002\nentropy = 1.585\nsamples = 15000\nvalue = [5000, 5000, 5000]"] ;
1 [label="X[168] <= 0.011\nentropy = 1.479\nsamples = 6495\nvalue = [3369, 1650, 1476]"] ;
0 -> 1 [labeldistance=2.5, labelangle=45, headlabel="True"] ;
2 [label="X[224] <= 0.002\nentropy = 1.572\nsamples = 4280\nvalue = [1688, 1348, 1244]"] ;
1 -> 2 ;
3 [label="X[190] <= 0.004\nentropy = 1.363\nsamples = 1420\nvalue = [859, 270, 291]"] ;
2 -> 3 ;
4 [label="X[36] <= 0.002\nentropy = 1.212\nsamples = 1063\nvalue = [719, 222, 122]"] ;
3 -> 4 ;
5 [label="X[111] <= 0.001\nentropy = 1.005\nsamples = 758\nvalue = [577, 126, 55]"] ;
4 -> 5 ;
6 [label="X[181] <= 0.001\nentropy = 0.603\nsamples = 317\nvalue = [281, 27, 9]"] ;
5 -> 6 ;
7 [label="entropy = 0.884\nsamples = 121\nvalue = [95, 22, 4]"] ;
6 -> 7 ;
8 [label="X[27] <= 0.001\nentropy = 0.342\nsamples = 196\nvalue = [186, 5, 5]"] ;
6 -> 8 ;
9 [label="entropy = 0.104\nsamples = 147\nvalue = [145, 2, 0]"] ;
8 -> 9 ;
10 [label="entropy = 0.798\nsamples = 49\nvalue = [41, 3, 5]"] ;
8 -> 10 ;
11 [label="X[103] <= 0.002\nentropy = 1.21\nsamples = 441\nvalue = [296, 99, 46]"] ;
5 -> 11 ;
12 [label="entropy = 1.306\nsamples = 94\nvalue = [41, 46, 7]"] ;
11 -> 12 ;
13 [label="X[225] <= 0.001\nentropy = 1.095\nsamples = 347\nvalue = [255, 53, 39]"] ;
11 -> 13 ;
14 [label="X[5] <= 0.003\nentropy = 0.863\nsamples = 254\nvalue = [208, 25, 21]"] ;
13 -> 14 ;
15 [label="X[94] <= 0.005\nentropy = 0.664\nsamples = 208\nvalue = [181, 20, 7]"] ;
14 -> 15 ;
16 [label="entropy = 0.427\nsamples = 149\nvalue = [136, 13, 0]"] ;
15 -> 16 ;
17 [label="entropy = 1.028\nsamples = 59\nvalue = [45, 7, 7]"] ;
15 -> 17 ;
18 [label="entropy = 1.322\nsamples = 46\nvalue = [27, 5, 14]"] ;
14 -> 18 ;
19 [label="entropy = 1.478\nsamples = 93\nvalue = [47, 28, 18]"] ;
13 -> 19 ;
20 [label="X[66] <= 0.002\nentropy = 1.519\nsamples = 305\nvalue = [142, 96, 67]"] ;
4 -> 20 ;
21 [label="entropy = 1.262\nsamples = 166\nvalue = [92, 63, 11]"] ;
20 -> 21 ;
22 [label="entropy = 1.552\nsamples = 139\nvalue = [50, 33, 56]"] ;
20 -> 22 ;
23 [label="X[144] <= 0.005\nentropy = 1.43\nsamples = 357\nvalue = [140, 48, 169]"] ;
3 -> 23 ;
24 [label="X[180] <= 0.006\nentropy = 1.479\nsamples = 210\nvalue = [108, 44, 58]"] ;
23 -> 24 ;
25 [label="entropy = 1.545\nsamples = 173\nvalue = [74, 41, 58]"] ;
24 -> 25 ;
26 [label="entropy = 0.406\nsamples = 37\nvalue = [34, 3, 0]"] ;
24 -> 26 ;
27 [label="entropy = 0.926\nsamples = 147\nvalue = [32, 4, 111]"] ;
23 -> 27 ;
28 [label="X[66] <= 0.002\nentropy = 1.577\nsamples = 2860\nvalue = [829, 1078, 953]"] ;
2 -> 28 ;
29 [label="X[71] <= 0.001\nentropy = 1.524\nsamples = 1621\nvalue = [558, 719, 344]"] ;
28 -> 29 ;
30 [label="X[82] <= 0.003\nentropy = 1.294\nsamples = 665\nvalue = [190, 405, 70]"] ;
29 -> 30 ;
31 [label="X[108] <= 0.009\nentropy = 1.347\nsamples = 320\nvalue = [140, 151, 29]"] ;
30 -> 31 ;
32 [label="X[137] <= 0.005\nentropy = 1.376\nsamples = 247\nvalue = [129, 90, 28]"] ;
31 -> 32 ;
33 [label="X[70] <= 0.001\nentropy = 1.439\nsamples = 197\nvalue = [85, 85, 27]"] ;
32 -> 33 ;
34 [label="entropy = 1.25\nsamples = 147\nvalue = [72, 67, 8]"] ;
33 -> 34 ;
35 [label="entropy = 1.566\nsamples = 50\nvalue = [13, 18, 19]"] ;
33 -> 35 ;
36 [label="entropy = 0.607\nsamples = 50\nvalue = [44, 5, 1]"] ;
32 -> 36 ;
37 [label="entropy = 0.713\nsamples = 73\nvalue = [11, 61, 1]"] ;
31 -> 37 ;
38 [label="X[190] <= 0.009\nentropy = 1.094\nsamples = 345\nvalue = [50, 254, 41]"] ;
30 -> 38 ;
39 [label="X[208] <= 0.007\nentropy = 0.987\nsamples = 305\nvalue = [47, 235, 23]"] ;
38 -> 39 ;
40 [label="entropy = 1.329\nsamples = 133\nvalue = [34, 81, 18]"] ;
39 -> 40 ;
41 [label="entropy = 0.573\nsamples = 172\nvalue = [13, 154, 5]"] ;
39 -> 41 ;
42 [label="entropy = 1.309\nsamples = 40\nvalue = [3, 19, 18]"] ;
38 -> 42 ;
43 [label="X[182] <= 0.008\nentropy = 1.574\nsamples = 956\nvalue = [368, 314, 274]"] ;
29 -> 43 ;
44 [label="X[74] <= 0.008\nentropy = 1.584\nsamples = 846\nvalue = [282, 297, 267]"] ;
43 -> 44 ;
45 [label="X[2] <= 0.002\nentropy = 1.577\nsamples = 746\nvalue = [214, 277, 255]"] ;
44 -> 45 ;
46 [label="X[128] <= 0.011\nentropy = 1.566\nsamples = 616\nvalue = [196, 250, 170]"] ;
45 -> 46 ;
47 [label="X[116] <= 0.005\nentropy = 1.545\nsamples = 574\nvalue = [190, 247, 137]"] ;
46 -> 47 ;
48 [label="X[224] <= 0.009\nentropy = 1.527\nsamples = 446\nvalue = [116, 210, 120]"] ;
47 -> 48 ;
49 [label="X[39] <= 0.004\nentropy = 1.581\nsamples = 277\nvalue = [90, 102, 85]"] ;
48 -> 49 ;
50 [label="entropy = 1.485\nsamples = 114\nvalue = [55, 38, 21]"] ;
49 -> 50 ;
51 [label="entropy = 1.536\nsamples = 163\nvalue = [35, 64, 64]"] ;
49 -> 51 ;
52 [label="entropy = 1.299\nsamples = 169\nvalue = [26, 108, 35]"] ;
48 -> 52 ;
53 [label="entropy = 1.361\nsamples = 128\nvalue = [74, 37, 17]"] ;
47 -> 53 ;
54 [label="entropy = 0.946\nsamples = 42\nvalue = [6, 3, 33]"] ;
46 -> 54 ;
55 [label="entropy = 1.267\nsamples = 130\nvalue = [18, 27, 85]"] ;
45 -> 55 ;
56 [label="entropy = 1.21\nsamples = 100\nvalue = [68, 20, 12]"] ;
44 -> 56 ;
57 [label="entropy = 0.947\nsamples = 110\nvalue = [86, 17, 7]"] ;
43 -> 57 ;
58 [label="X[175] <= 0.004\nentropy = 1.501\nsamples = 1239\nvalue = [271, 359, 609]"] ;
28 -> 58 ;
59 [label="X[72] <= 0.007\nentropy = 1.572\nsamples = 576\nvalue = [160, 224, 192]"] ;
58 -> 59 ;
60 [label="X[22] <= 0.003\nentropy = 1.454\nsamples = 307\nvalue = [69, 166, 72]"] ;
59 -> 60 ;
61 [label="entropy = 1.533\nsamples = 150\nvalue = [56, 62, 32]"] ;
60 -> 61 ;
62 [label="entropy = 1.194\nsamples = 157\nvalue = [13, 104, 40]"] ;
60 -> 62 ;
63 [label="X[21] <= 0.004\nentropy = 1.526\nsamples = 269\nvalue = [91, 58, 120]"] ;
59 -> 63 ;
64 [label="X[46] <= 0.001\nentropy = 1.443\nsamples = 207\nvalue = [85, 29, 93]"] ;
63 -> 64 ;
65 [label="entropy = 1.364\nsamples = 139\nvalue = [76, 16, 47]"] ;
64 -> 65 ;
66 [label="entropy = 1.224\nsamples = 68\nvalue = [9, 13, 46]"] ;
64 -> 66 ;
67 [label="entropy = 1.361\nsamples = 62\nvalue = [6, 29, 27]"] ;
63 -> 67 ;
68 [label="X[55] <= 0.002\nentropy = 1.32\nsamples = 663\nvalue = [111, 135, 417]"] ;
58 -> 68 ;
69 [label="X[120] <= 0.005\nentropy = 1.521\nsamples = 310\nvalue = [68, 99, 143]"] ;
68 -> 69 ;
70 [label="entropy = 1.451\nsamples = 139\nvalue = [28, 75, 36]"] ;
69 -> 70 ;
71 [label="entropy = 1.311\nsamples = 171\nvalue = [40, 24, 107]"] ;
69 -> 71 ;
72 [label="X[128] <= 0.011\nentropy = 0.99\nsamples = 353\nvalue = [43, 36, 274]"] ;
68 -> 72 ;
73 [label="X[149] <= 0.013\nentropy = 1.192\nsamples = 252\nvalue = [42, 35, 175]"] ;
72 -> 73 ;
74 [label="X[138] <= 0.008\nentropy = 1.08\nsamples = 233\nvalue = [30, 30, 173]"] ;
73 -> 74 ;
75 [label="X[116] <= 0.004\nentropy = 0.955\nsamples = 216\nvalue = [19, 27, 170]"] ;
74 -> 75 ;
76 [label="entropy = 0.785\nsamples = 175\nvalue = [6, 24, 145]"] ;
75 -> 76 ;
77 [label="entropy = 1.237\nsamples = 41\nvalue = [13, 3, 25]"] ;
75 -> 77 ;
78 [label="entropy = 1.29\nsamples = 17\nvalue = [11, 3, 3]"] ;
74 -> 78 ;
79 [label="entropy = 1.267\nsamples = 19\nvalue = [12, 5, 2]"] ;
73 -> 79 ;
80 [label="entropy = 0.16\nsamples = 101\nvalue = [1, 1, 99]"] ;
72 -> 80 ;
81 [label="X[152] <= 0.019\nentropy = 1.035\nsamples = 2215\nvalue = [1681, 302, 232]"] ;
1 -> 81 ;
82 [label="X[208] <= 0.004\nentropy = 1.27\nsamples = 1389\nvalue = [911, 263, 215]"] ;
81 -> 82 ;
83 [label="X[27] <= 0.003\nentropy = 0.978\nsamples = 848\nvalue = [662, 92, 94]"] ;
82 -> 83 ;
84 [label="X[60] <= 0.003\nentropy = 0.824\nsamples = 748\nvalue = [621, 74, 53]"] ;
83 -> 84 ;
85 [label="X[81] <= 0.006\nentropy = 0.697\nsamples = 686\nvalue = [592, 66, 28]"] ;
84 -> 85 ;
86 [label="X[138] <= 0.003\nentropy = 0.536\nsamples = 581\nvalue = [525, 42, 14]"] ;
85 -> 86 ;
87 [label="X[225] <= 0.001\nentropy = 0.784\nsamples = 273\nvalue = [228, 33, 12]"] ;
86 -> 87 ;
88 [label="X[88] <= 0.002\nentropy = 0.544\nsamples = 203\nvalue = [183, 15, 5]"] ;
87 -> 88 ;
89 [label="entropy = 1.105\nsamples = 38\nvalue = [26, 10, 2]"] ;
88 -> 89 ;
90 [label="entropy = 0.326\nsamples = 165\nvalue = [157, 5, 3]"] ;
88 -> 90 ;
91 [label="entropy = 1.246\nsamples = 70\nvalue = [45, 18, 7]"] ;
87 -> 91 ;
92 [label="X[18] <= 0.001\nentropy = 0.247\nsamples = 308\nvalue = [297, 9, 2]"] ;
86 -> 92 ;
93 [label="X[237] <= 0.01\nentropy = 0.064\nsamples = 265\nvalue = [263, 2, 0]"] ;
92 -> 93 ;
94 [label="entropy = 0.0\nsamples = 261\nvalue = [261, 0, 0]"] ;
93 -> 94 ;
95 [label="entropy = 1.0\nsamples = 4\nvalue = [2, 2, 0]"] ;
93 -> 95 ;
96 [label="entropy = 0.9\nsamples = 43\nvalue = [34, 7, 2]"] ;
92 -> 96 ;
97 [label="entropy = 1.288\nsamples = 105\nvalue = [67, 24, 14]"] ;
85 -> 97 ;
98 [label="entropy = 1.422\nsamples = 62\nvalue = [29, 8, 25]"] ;
84 -> 98 ;
99 [label="entropy = 1.5\nsamples = 100\nvalue = [41, 18, 41]"] ;
83 -> 99 ;
100 [label="X[183] <= 0.006\nentropy = 1.524\nsamples = 541\nvalue = [249, 171, 121]"] ;
82 -> 100 ;
101 [label="X[171] <= 0.007\nentropy = 1.568\nsamples = 305\nvalue = [91, 124, 90]"] ;
100 -> 101 ;
102 [label="X[191] <= 0.003\nentropy = 1.558\nsamples = 202\nvalue = [59, 57, 86]"] ;
101 -> 102 ;
103 [label="entropy = 1.497\nsamples = 102\nvalue = [36, 47, 19]"] ;
102 -> 103 ;
104 [label="entropy = 1.207\nsamples = 100\nvalue = [23, 10, 67]"] ;
102 -> 104 ;
105 [label="entropy = 1.11\nsamples = 103\nvalue = [32, 67, 4]"] ;
101 -> 105 ;
106 [label="X[29] <= 0.002\nentropy = 1.236\nsamples = 236\nvalue = [158, 47, 31]"] ;
100 -> 106 ;
107 [label="X[150] <= 0.003\nentropy = 1.03\nsamples = 199\nvalue = [150, 33, 16]"] ;
106 -> 107 ;
108 [label="entropy = 1.534\nsamples = 48\nvalue = [22, 14, 12]"] ;
107 -> 108 ;
109 [label="entropy = 0.717\nsamples = 151\nvalue = [128, 19, 4]"] ;
107 -> 109 ;
110 [label="entropy = 1.536\nsamples = 37\nvalue = [8, 14, 15]"] ;
106 -> 110 ;
111 [label="X[182] <= 0.002\nentropy = 0.418\nsamples = 826\nvalue = [770, 39, 17]"] ;
81 -> 111 ;
112 [label="entropy = 0.838\nsamples = 167\nvalue = [135, 26, 6]"] ;
111 -> 112 ;
113 [label="X[37] <= 0.002\nentropy = 0.262\nsamples = 659\nvalue = [635, 13, 11]"] ;
111 -> 113 ;
114 [label="X[225] <= 0.001\nentropy = 0.172\nsamples = 583\nvalue = [570, 10, 3]"] ;
113 -> 114 ;
115 [label="X[155] <= 0.0\nentropy = 0.071\nsamples = 466\nvalue = [462, 4, 0]"] ;
114 -> 115 ;
116 [label="entropy = 0.433\nsamples = 45\nvalue = [41, 4, 0]"] ;
115 -> 116 ;
117 [label="entropy = 0.0\nsamples = 421\nvalue = [421, 0, 0]"] ;
115 -> 117 ;
118 [label="entropy = 0.462\nsamples = 117\nvalue = [108, 6, 3]"] ;
114 -> 118 ;
119 [label="entropy = 0.719\nsamples = 76\nvalue = [65, 3, 8]"] ;
113 -> 119 ;
120 [label="X[224] <= 0.003\nentropy = 1.513\nsamples = 8505\nvalue = [1631, 3350, 3524]"] ;
0 -> 120 [labeldistance=2.5, labelangle=-45, headlabel="False"] ;
121 [label="X[222] <= 0.001\nentropy = 1.528\nsamples = 3026\nvalue = [922, 710, 1394]"] ;
120 -> 121 ;
122 [label="X[182] <= 0.007\nentropy = 1.503\nsamples = 1254\nvalue = [589, 248, 417]"] ;
121 -> 122 ;
123 [label="X[152] <= 0.012\nentropy = 1.532\nsamples = 1051\nvalue = [420, 222, 409]"] ;
122 -> 123 ;
124 [label="X[56] <= 0.003\nentropy = 1.539\nsamples = 818\nvalue = [262, 194, 362]"] ;
123 -> 124 ;
125 [label="X[71] <= 0.004\nentropy = 1.472\nsamples = 237\nvalue = [124, 62, 51]"] ;
124 -> 125 ;
126 [label="entropy = 1.464\nsamples = 166\nvalue = [80, 59, 27]"] ;
125 -> 126 ;
127 [label="entropy = 1.15\nsamples = 71\nvalue = [44, 3, 24]"] ;
125 -> 127 ;
128 [label="X[230] <= 0.001\nentropy = 1.461\nsamples = 581\nvalue = [138, 132, 311]"] ;
124 -> 128 ;
129 [label="entropy = 1.46\nsamples = 97\nvalue = [52, 23, 22]"] ;
128 -> 129 ;
130 [label="X[144] <= 0.003\nentropy = 1.371\nsamples = 484\nvalue = [86, 109, 289]"] ;
128 -> 130 ;
131 [label="X[32] <= 0.002\nentropy = 1.558\nsamples = 202\nvalue = [57, 59, 86]"] ;
130 -> 131 ;
132 [label="entropy = 1.222\nsamples = 44\nvalue = [27, 3, 14]"] ;
131 -> 132 ;
133 [label="entropy = 1.502\nsamples = 158\nvalue = [30, 56, 72]"] ;
131 -> 133 ;
134 [label="X[192] <= 0.003\nentropy = 1.121\nsamples = 282\nvalue = [29, 50, 203]"] ;
130 -> 134 ;
135 [label="X[72] <= 0.002\nentropy = 0.895\nsamples = 187\nvalue = [21, 15, 151]"] ;
134 -> 135 ;
136 [label="entropy = 1.361\nsamples = 10\nvalue = [5, 4, 1]"] ;
135 -> 136 ;
137 [label="entropy = 0.765\nsamples = 177\nvalue = [16, 11, 150]"] ;
135 -> 137 ;
138 [label="entropy = 1.307\nsamples = 95\nvalue = [8, 35, 52]"] ;
134 -> 138 ;
139 [label="X[97] <= 0.001\nentropy = 1.213\nsamples = 233\nvalue = [158, 28, 47]"] ;
123 -> 139 ;
140 [label="entropy = 0.709\nsamples = 79\nvalue = [66, 12, 1]"] ;
139 -> 140 ;
141 [label="entropy = 1.304\nsamples = 154\nvalue = [92, 16, 46]"] ;
139 -> 141 ;
142 [label="X[229] <= 0.004\nentropy = 0.784\nsamples = 203\nvalue = [169, 26, 8]"] ;
122 -> 142 ;
143 [label="entropy = 0.603\nsamples = 157\nvalue = [140, 9, 8]"] ;
142 -> 143 ;
144 [label="entropy = 0.95\nsamples = 46\nvalue = [29, 17, 0]"] ;
142 -> 144 ;
145 [label="X[190] <= 0.004\nentropy = 1.432\nsamples = 1772\nvalue = [333, 462, 977]"] ;
121 -> 145 ;
146 [label="X[175] <= 0.002\nentropy = 1.547\nsamples = 1065\nvalue = [257, 353, 455]"] ;
145 -> 146 ;
147 [label="X[104] <= 0.018\nentropy = 1.554\nsamples = 394\nvalue = [135, 162, 97]"] ;
146 -> 147 ;
148 [label="X[45] <= 0.003\nentropy = 1.547\nsamples = 354\nvalue = [102, 157, 95]"] ;
147 -> 148 ;
149 [label="X[150] <= 0.007\nentropy = 1.515\nsamples = 252\nvalue = [91, 111, 50]"] ;
148 -> 149 ;
150 [label="entropy = 1.528\nsamples = 160\nvalue = [41, 75, 44]"] ;
149 -> 150 ;
151 [label="entropy = 1.265\nsamples = 92\nvalue = [50, 36, 6]"] ;
149 -> 151 ;
152 [label="entropy = 1.385\nsamples = 102\nvalue = [11, 46, 45]"] ;
148 -> 152 ;
153 [label="entropy = 0.82\nsamples = 40\nvalue = [33, 5, 2]"] ;
147 -> 153 ;
154 [label="X[155] <= 0.012\nentropy = 1.447\nsamples = 671\nvalue = [122, 191, 358]"] ;
146 -> 154 ;
155 [label="X[164] <= 0.012\nentropy = 1.385\nsamples = 595\nvalue = [98, 151, 346]"] ;
154 -> 155 ;
156 [label="X[170] <= 0.01\nentropy = 1.323\nsamples = 545\nvalue = [82, 124, 339]"] ;
155 -> 156 ;
157 [label="X[66] <= 0.004\nentropy = 1.245\nsamples = 501\nvalue = [60, 111, 330]"] ;
156 -> 157 ;
158 [label="X[119] <= 0.005\nentropy = 1.394\nsamples = 327\nvalue = [50, 92, 185]"] ;
157 -> 158 ;
159 [label="X[230] <= 0.001\nentropy = 1.488\nsamples = 197\nvalue = [34, 76, 87]"] ;
158 -> 159 ;
160 [label="entropy = 1.509\nsamples = 39\nvalue = [19, 9, 11]"] ;
159 -> 160 ;
161 [label="entropy = 1.355\nsamples = 158\nvalue = [15, 67, 76]"] ;
159 -> 161 ;
162 [label="entropy = 1.051\nsamples = 130\nvalue = [16, 16, 98]"] ;
158 -> 162 ;
163 [label="entropy = 0.805\nsamples = 174\nvalue = [10, 19, 145]"] ;
157 -> 163 ;
164 [label="entropy = 1.488\nsamples = 44\nvalue = [22, 13, 9]"] ;
156 -> 164 ;
165 [label="entropy = 1.403\nsamples = 50\nvalue = [16, 27, 7]"] ;
155 -> 165 ;
166 [label="entropy = 1.433\nsamples = 76\nvalue = [24, 40, 12]"] ;
154 -> 166 ;
167 [label="X[170] <= 0.012\nentropy = 1.085\nsamples = 707\nvalue = [76, 109, 522]"] ;
145 -> 167 ;
168 [label="X[159] <= 0.005\nentropy = 0.972\nsamples = 658\nvalue = [52, 94, 512]"] ;
167 -> 168 ;
169 [label="X[107] <= 0.006\nentropy = 1.302\nsamples = 262\nvalue = [34, 64, 164]"] ;
168 -> 169 ;
170 [label="entropy = 1.177\nsamples = 173\nvalue = [30, 22, 121]"] ;
169 -> 170 ;
171 [label="entropy = 1.219\nsamples = 89\nvalue = [4, 42, 43]"] ;
169 -> 171 ;
172 [label="X[9] <= 0.0\nentropy = 0.649\nsamples = 396\nvalue = [18, 30, 348]"] ;
168 -> 172 ;
173 [label="entropy = 1.39\nsamples = 58\nvalue = [11, 13, 34]"] ;
172 -> 173 ;
174 [label="X[191] <= 0.009\nentropy = 0.432\nsamples = 338\nvalue = [7, 17, 314]"] ;
172 -> 174 ;
175 [label="entropy = 0.706\nsamples = 165\nvalue = [7, 16, 142]"] ;
174 -> 175 ;
176 [label="entropy = 0.051\nsamples = 173\nvalue = [0, 1, 172]"] ;
174 -> 176 ;
177 [label="entropy = 1.495\nsamples = 49\nvalue = [24, 15, 10]"] ;
167 -> 177 ;
178 [label="X[128] <= 0.006\nentropy = 1.419\nsamples = 5479\nvalue = [709, 2640, 2130]"] ;
120 -> 178 ;
179 [label="X[192] <= 0.003\nentropy = 1.411\nsamples = 4163\nvalue = [587, 2211, 1365]"] ;
178 -> 179 ;
180 [label="X[144] <= 0.003\nentropy = 1.502\nsamples = 1715\nvalue = [313, 679, 723]"] ;
179 -> 180 ;
181 [label="X[116] <= 0.011\nentropy = 1.506\nsamples = 775\nvalue = [174, 378, 223]"] ;
180 -> 181 ;
182 [label="X[169] <= 0.007\nentropy = 1.483\nsamples = 737\nvalue = [145, 369, 223]"] ;
181 -> 182 ;
183 [label="X[198] <= 0.0\nentropy = 1.428\nsamples = 561\nvalue = [80, 284, 197]"] ;
182 -> 183 ;
184 [label="entropy = 1.361\nsamples = 48\nvalue = [25, 18, 5]"] ;
183 -> 184 ;
185 [label="X[71] <= 0.004\nentropy = 1.367\nsamples = 513\nvalue = [55, 266, 192]"] ;
183 -> 185 ;
186 [label="X[67] <= 0.015\nentropy = 1.243\nsamples = 294\nvalue = [27, 187, 80]"] ;
185 -> 186 ;
187 [label="X[18] <= 0.009\nentropy = 1.218\nsamples = 284\nvalue = [27, 187, 70]"] ;
186 -> 187 ;
188 [label="X[186] <= 0.001\nentropy = 1.167\nsamples = 264\nvalue = [26, 183, 55]"] ;
187 -> 188 ;
189 [label="entropy = 0.764\nsamples = 119\nvalue = [9, 101, 9]"] ;
188 -> 189 ;
190 [label="entropy = 1.353\nsamples = 145\nvalue = [17, 82, 46]"] ;
188 -> 190 ;
191 [label="entropy = 0.992\nsamples = 20\nvalue = [1, 4, 15]"] ;
187 -> 191 ;
192 [label="entropy = 0.0\nsamples = 10\nvalue = [0, 0, 10]"] ;
186 -> 192 ;
193 [label="X[139] <= 0.005\nentropy = 1.405\nsamples = 219\nvalue = [28, 79, 112]"] ;
185 -> 193 ;
194 [label="X[66] <= 0.004\nentropy = 1.331\nsamples = 187\nvalue = [21, 57, 109]"] ;
193 -> 194 ;
195 [label="entropy = 1.416\nsamples = 134\nvalue = [17, 53, 64]"] ;
194 -> 195 ;
196 [label="entropy = 0.763\nsamples = 53\nvalue = [4, 4, 45]"] ;
194 -> 196 ;
197 [label="entropy = 1.171\nsamples = 32\nvalue = [7, 22, 3]"] ;
193 -> 197 ;
198 [label="entropy = 1.445\nsamples = 176\nvalue = [65, 85, 26]"] ;
182 -> 198 ;
199 [label="entropy = 0.79\nsamples = 38\nvalue = [29, 9, 0]"] ;
181 -> 199 ;
200 [label="X[191] <= 0.006\nentropy = 1.418\nsamples = 940\nvalue = [139, 301, 500]"] ;
180 -> 200 ;
201 [label="X[72] <= 0.003\nentropy = 1.499\nsamples = 691\nvalue = [127, 255, 309]"] ;
200 -> 201 ;
202 [label="entropy = 1.439\nsamples = 165\nvalue = [40, 91, 34]"] ;
201 -> 202 ;
203 [label="X[0] <= 0.003\nentropy = 1.443\nsamples = 526\nvalue = [87, 164, 275]"] ;
201 -> 203 ;
204 [label="X[247] <= 0.0\nentropy = 1.564\nsamples = 227\nvalue = [66, 67, 94]"] ;
203 -> 204 ;
205 [label="entropy = 0.863\nsamples = 21\nvalue = [15, 6, 0]"] ;
204 -> 205 ;
206 [label="X[124] <= 0.001\nentropy = 1.535\nsamples = 206\nvalue = [51, 61, 94]"] ;
204 -> 206 ;
207 [label="entropy = 1.545\nsamples = 94\nvalue = [26, 42, 26]"] ;
206 -> 207 ;
208 [label="entropy = 1.354\nsamples = 112\nvalue = [25, 19, 68]"] ;
206 -> 208 ;
209 [label="X[240] <= 0.003\nentropy = 1.234\nsamples = 299\nvalue = [21, 97, 181]"] ;
203 -> 209 ;
210 [label="entropy = 1.213\nsamples = 148\nvalue = [17, 31, 100]"] ;
209 -> 210 ;
211 [label="entropy = 1.143\nsamples = 151\nvalue = [4, 66, 81]"] ;
209 -> 211 ;
212 [label="X[158] <= 0.008\nentropy = 0.954\nsamples = 249\nvalue = [12, 46, 191]"] ;
200 -> 212 ;
213 [label="entropy = 1.292\nsamples = 121\nvalue = [11, 39, 71]"] ;
212 -> 213 ;
214 [label="entropy = 0.371\nsamples = 128\nvalue = [1, 7, 120]"] ;
212 -> 214 ;
215 [label="X[156] <= 0.012\nentropy = 1.283\nsamples = 2448\nvalue = [274, 1532, 642]"] ;
179 -> 215 ;
216 [label="X[72] <= 0.012\nentropy = 1.331\nsamples = 2143\nvalue = [256, 1269, 618]"] ;
215 -> 216 ;
217 [label="X[174] <= 0.004\nentropy = 1.272\nsamples = 1814\nvalue = [197, 1145, 472]"] ;
216 -> 217 ;
218 [label="X[150] <= 0.011\nentropy = 1.22\nsamples = 1048\nvalue = [134, 710, 204]"] ;
217 -> 218 ;
219 [label="X[55] <= 0.002\nentropy = 1.196\nsamples = 932\nvalue = [98, 634, 200]"] ;
218 -> 219 ;
220 [label="X[103] <= 0.013\nentropy = 1.028\nsamples = 526\nvalue = [51, 400, 75]"] ;
219 -> 220 ;
221 [label="X[23] <= 0.001\nentropy = 0.959\nsamples = 495\nvalue = [37, 387, 71]"] ;
220 -> 221 ;
222 [label="entropy = 0.612\nsamples = 153\nvalue = [14, 135, 4]"] ;
221 -> 222 ;
223 [label="X[169] <= 0.01\nentropy = 1.047\nsamples = 342\nvalue = [23, 252, 67]"] ;
221 -> 223 ;
224 [label="X[190] <= 0.006\nentropy = 1.017\nsamples = 302\nvalue = [14, 221, 67]"] ;
223 -> 224 ;
225 [label="X[244] <= 0.0\nentropy = 0.95\nsamples = 257\nvalue = [14, 199, 44]"] ;
224 -> 225 ;
226 [label="entropy = 1.441\nsamples = 42\nvalue = [6, 20, 16]"] ;
225 -> 226 ;
227 [label="X[98] <= 0.001\nentropy = 0.78\nsamples = 215\nvalue = [8, 179, 28]"] ;
225 -> 227 ;
228 [label="entropy = 1.28\nsamples = 62\nvalue = [7, 39, 16]"] ;
227 -> 228 ;
229 [label="entropy = 0.453\nsamples = 153\nvalue = [1, 140, 12]"] ;
227 -> 229 ;
230 [label="entropy = 1.0\nsamples = 45\nvalue = [0, 22, 23]"] ;
224 -> 230 ;
231 [label="entropy = 0.769\nsamples = 40\nvalue = [9, 31, 0]"] ;
223 -> 231 ;
232 [label="entropy = 1.425\nsamples = 31\nvalue = [14, 13, 4]"] ;
220 -> 232 ;
233 [label="X[129] <= 0.003\nentropy = 1.342\nsamples = 406\nvalue = [47, 234, 125]"] ;
219 -> 233 ;
234 [label="X[29] <= 0.0\nentropy = 1.291\nsamples = 276\nvalue = [40, 177, 59]"] ;
233 -> 234 ;
235 [label="entropy = 0.996\nsamples = 28\nvalue = [15, 13, 0]"] ;
234 -> 235 ;
236 [label="X[116] <= 0.0\nentropy = 1.221\nsamples = 248\nvalue = [25, 164, 59]"] ;
234 -> 236 ;
237 [label="entropy = 0.977\nsamples = 34\nvalue = [0, 14, 20]"] ;
236 -> 237 ;
238 [label="X[51] <= 0.009\nentropy = 1.169\nsamples = 214\nvalue = [25, 150, 39]"] ;
236 -> 238 ;
239 [label="X[163] <= 0.002\nentropy = 1.088\nsamples = 202\nvalue = [17, 147, 38]"] ;
238 -> 239 ;
240 [label="entropy = 1.154\nsamples = 74\nvalue = [3, 45, 26]"] ;
239 -> 240 ;
241 [label="entropy = 0.93\nsamples = 128\nvalue = [14, 102, 12]"] ;
239 -> 241 ;
242 [label="entropy = 1.189\nsamples = 12\nvalue = [8, 3, 1]"] ;
238 -> 242 ;
243 [label="entropy = 1.245\nsamples = 130\nvalue = [7, 57, 66]"] ;
233 -> 243 ;
244 [label="entropy = 1.091\nsamples = 116\nvalue = [36, 76, 4]"] ;
218 -> 244 ;
245 [label="X[240] <= 0.004\nentropy = 1.29\nsamples = 766\nvalue = [63, 435, 268]"] ;
217 -> 245 ;
246 [label="X[24] <= 0.006\nentropy = 1.405\nsamples = 295\nvalue = [35, 124, 136]"] ;
245 -> 246 ;
247 [label="X[212] <= 0.001\nentropy = 1.434\nsamples = 215\nvalue = [30, 104, 81]"] ;
246 -> 247 ;
248 [label="entropy = 1.351\nsamples = 38\nvalue = [9, 6, 23]"] ;
247 -> 248 ;
249 [label="entropy = 1.365\nsamples = 177\nvalue = [21, 98, 58]"] ;
247 -> 249 ;
250 [label="entropy = 1.122\nsamples = 80\nvalue = [5, 20, 55]"] ;
246 -> 250 ;
251 [label="X[48] <= 0.0\nentropy = 1.152\nsamples = 471\nvalue = [28, 311, 132]"] ;
245 -> 251 ;
252 [label="entropy = 1.131\nsamples = 25\nvalue = [4, 3, 18]"] ;
251 -> 252 ;
253 [label="X[5] <= 0.005\nentropy = 1.099\nsamples = 446\nvalue = [24, 308, 114]"] ;
251 -> 253 ;
254 [label="X[66] <= 0.007\nentropy = 1.06\nsamples = 383\nvalue = [24, 278, 81]"] ;
253 -> 254 ;
255 [label="X[115] <= 0.009\nentropy = 0.983\nsamples = 347\nvalue = [21, 265, 61]"] ;
254 -> 255 ;
256 [label="X[92] <= 0.003\nentropy = 0.948\nsamples = 320\nvalue = [14, 245, 61]"] ;
255 -> 256 ;
257 [label="entropy = 1.12\nsamples = 160\nvalue = [14, 114, 32]"] ;
256 -> 257 ;
258 [label="entropy = 0.683\nsamples = 160\nvalue = [0, 131, 29]"] ;
256 -> 258 ;
259 [label="entropy = 0.826\nsamples = 27\nvalue = [7, 20, 0]"] ;
255 -> 259 ;
260 [label="entropy = 1.301\nsamples = 36\nvalue = [3, 13, 20]"] ;
254 -> 260 ;
261 [label="entropy = 0.998\nsamples = 63\nvalue = [0, 30, 33]"] ;
253 -> 261 ;
262 [label="X[89] <= 0.015\nentropy = 1.495\nsamples = 329\nvalue = [59, 124, 146]"] ;
216 -> 262 ;
263 [label="X[153] <= 0.008\nentropy = 1.445\nsamples = 313\nvalue = [45, 122, 146]"] ;
262 -> 263 ;
264 [label="X[76] <= 0.003\nentropy = 1.333\nsamples = 249\nvalue = [23, 94, 132]"] ;
263 -> 264 ;
265 [label="entropy = 1.238\nsamples = 153\nvalue = [15, 39, 99]"] ;
264 -> 265 ;
266 [label="entropy = 1.289\nsamples = 96\nvalue = [8, 55, 33]"] ;
264 -> 266 ;
267 [label="entropy = 1.531\nsamples = 64\nvalue = [22, 28, 14]"] ;
263 -> 267 ;
268 [label="entropy = 0.544\nsamples = 16\nvalue = [14, 2, 0]"] ;
262 -> 268 ;
269 [label="X[130] <= 0.007\nentropy = 0.714\nsamples = 305\nvalue = [18, 263, 24]"] ;
215 -> 269 ;
270 [label="X[146] <= 0.002\nentropy = 0.619\nsamples = 275\nvalue = [18, 244, 13]"] ;
269 -> 270 ;
271 [label="entropy = 0.189\nsamples = 122\nvalue = [2, 119, 1]"] ;
270 -> 271 ;
272 [label="entropy = 0.867\nsamples = 153\nvalue = [16, 125, 12]"] ;
270 -> 272 ;
273 [label="entropy = 0.948\nsamples = 30\nvalue = [0, 19, 11]"] ;
269 -> 273 ;
274 [label="X[208] <= 0.006\nentropy = 1.3\nsamples = 1316\nvalue = [122, 429, 765]"] ;
178 -> 274 ;
275 [label="X[129] <= 0.004\nentropy = 1.154\nsamples = 628\nvalue = [71, 113, 444]"] ;
274 -> 275 ;
276 [label="X[66] <= 0.005\nentropy = 1.481\nsamples = 208\nvalue = [40, 64, 104]"] ;
275 -> 276 ;
277 [label="entropy = 1.566\nsamples = 145\nvalue = [40, 46, 59]"] ;
276 -> 277 ;
278 [label="entropy = 0.863\nsamples = 63\nvalue = [0, 18, 45]"] ;
276 -> 278 ;
279 [label="X[36] <= 0.002\nentropy = 0.886\nsamples = 420\nvalue = [31, 49, 340]"] ;
275 -> 279 ;
280 [label="entropy = 1.242\nsamples = 164\nvalue = [25, 29, 110]"] ;
279 -> 280 ;
281 [label="X[118] <= 0.009\nentropy = 0.553\nsamples = 256\nvalue = [6, 20, 230]"] ;
279 -> 281 ;
282 [label="X[81] <= 0.002\nentropy = 0.435\nsamples = 242\nvalue = [1, 19, 222]"] ;
281 -> 282 ;
283 [label="entropy = 0.08\nsamples = 101\nvalue = [1, 0, 100]"] ;
282 -> 283 ;
284 [label="entropy = 0.57\nsamples = 141\nvalue = [0, 19, 122]"] ;
282 -> 284 ;
285 [label="entropy = 1.264\nsamples = 14\nvalue = [5, 1, 8]"] ;
281 -> 285 ;
286 [label="X[70] <= 0.002\nentropy = 1.307\nsamples = 688\nvalue = [51, 316, 321]"] ;
274 -> 286 ;
287 [label="X[66] <= 0.0\nentropy = 1.253\nsamples = 382\nvalue = [28, 226, 128]"] ;
286 -> 287 ;
288 [label="entropy = 1.567\nsamples = 32\nvalue = [13, 10, 9]"] ;
287 -> 288 ;
289 [label="X[56] <= 0.006\nentropy = 1.154\nsamples = 350\nvalue = [15, 216, 119]"] ;
287 -> 289 ;
290 [label="X[19] <= 0.01\nentropy = 1.119\nsamples = 256\nvalue = [15, 175, 66]"] ;
289 -> 290 ;
291 [label="X[192] <= 0.002\nentropy = 1.179\nsamples = 224\nvalue = [14, 144, 66]"] ;
290 -> 291 ;
292 [label="entropy = 1.159\nsamples = 15\nvalue = [4, 1, 10]"] ;
291 -> 292 ;
293 [label="X[148] <= 0.006\nentropy = 1.094\nsamples = 209\nvalue = [10, 143, 56]"] ;
291 -> 293 ;
294 [label="entropy = 1.095\nsamples = 133\nvalue = [3, 80, 50]"] ;
293 -> 294 ;
295 [label="entropy = 0.83\nsamples = 76\nvalue = [7, 63, 6]"] ;
293 -> 295 ;
296 [label="entropy = 0.201\nsamples = 32\nvalue = [1, 31, 0]"] ;
290 -> 296 ;
297 [label="entropy = 0.988\nsamples = 94\nvalue = [0, 41, 53]"] ;
289 -> 297 ;
298 [label="X[38] <= 0.002\nentropy = 1.219\nsamples = 306\nvalue = [23, 90, 193]"] ;
286 -> 298 ;
299 [label="entropy = 1.436\nsamples = 150\nvalue = [22, 53, 75]"] ;
298 -> 299 ;
300 [label="entropy = 0.844\nsamples = 156\nvalue = [1, 37, 118]"] ;
298 -> 300 ;
}
